import cv2

# Initialize HOG descriptor and set SVM to be the default people detector
hog = cv2.HOGDescriptor()
hog.setSVMDetector(cv2.HOGDescriptor_getDefaultPeopleDetector())

# Open the video capture (0 is the default camera)
cap = cv2.VideoCapture(0)

while cap.isOpened():
    # Read a frame from the video capture
    ret, frame = cap.read()

    if not ret:
        print("Failed to capture frame. Exiting...")
        break

    # Resize the frame for faster processing
    frame = cv2.resize(frame, (640, 480))

    # Detect humans in the frame
    # The second parameter is for the hitThreshold, which can be adjusted for accuracy
    boxes, weights = hog.detectMultiScale(frame, winStride=(8, 8), padding=(16, 16), scale=1.05)

    # Draw bounding boxes around detected humans
    for (x, y, w, h) in boxes:
        cv2.rectangle(frame, (x, y), (x + w, y + h), (0, 255, 0), 2)

    # Display the frame
    cv2.imshow("Human Detection", frame)

    # Break the loop if 'q' is pressed
    if cv2.waitKey(1) & 0xFF == ord('q'):
        break

# Release the capture and close any OpenCV windows
cap.release()
cv2.destroyAllWindows()
